{"Config":{"Inputs":9,"Layout":[18,9,1],"Activation":1,"Mode":0,"Loss":3,"Bias":false},"Weights":[[[6.376072131237849,-6.317911058198129,8.045502971686206,-6.844795708807861,-9.059821274725437,-3.740615236741227,6.4007088244191515,-6.331234847227067,9.169961231487648],[-6.2159882382444325,0.19299835409526797,1.4013074875644143,-0.23012446761330144,-19.30303476932314,0.138912603377107,0.5822395737464796,-0.677898015495804,-6.738987002760421],[1.1007218805821382,0.44108705285759786,-5.91530612017131,-0.4249680486411842,-16.325665951331608,-0.3033471936985973,-7.467505889355297,-0.527702357542232,1.2320373061790828],[-11.865073892676586,-0.9548453005997769,3.7128799846832363,-5.205303553810567,-1.0994324827785658,-8.144251502159094,-9.154505321406536,0.5541135139213513,3.5816401952629087],[0.2861381222350662,-0.5723526481110611,0.8319189137119135,0.25393621215000395,-0.09318029100893825,0.551342711965121,-10.752769482718168,-7.815040077548811,-11.619856690418063],[0.6028244941777579,-7.973235601035785,1.13479897616338,-0.73353359137785,-1.3874536177578338,-3.237665953131166,-7.368300748985893,-0.4324424085176088,-1.4128644883706052],[25.191468065672986,16.935577743712823,12.034333559022002,-0.9156091866867029,-1.4978527831997424,-0.09942273584528488,-0.8549266134564945,-0.8331123894613408,-2.0397398669339872],[-9.34292167888863,-0.3821336804406173,-0.34425997401360137,-0.43718987837208345,-2.1147655233798583,-5.581755884618824,-0.6817945005456333,-6.871952047455428,1.5604179935541584],[-7.247419290767958,-4.1062319217948735,-13.150456654119072,-1.1248836063954153,0.07439625514398235,0.3650676025872746,0.6484441374304412,-3.3433200254505167,0.6490847494462169],[15.393160386189987,0.054635270381572586,-0.6319287246679821,18.774015710839887,-2.0320313460990684,-3.2886095637223343,21.105631545285807,-0.7139690772561617,-0.2541593896076055],[4.7808282615707025,8.452555424649992,5.0164393682553525,-1.2418021930798449,-3.919286108304898,-2.5202672114432674,2.034249513004874,15.524347077002815,4.739218031722607],[1.2044811616333837,-3.1205800986132295,-0.9327331786714591,-8.534077094839994,-1.7912553002841551,-0.5073376449575528,0.05653047237950652,-0.6596101656133516,-9.657990209490087],[-3.4284159143882658,-4.476066150728321,-2.618404850336283,0.9860338727611955,21.140774100592058,-0.3038795570584614,4.021461511857189,11.14811030598594,11.472027153614809],[-0.3491538404707856,-0.28568540057592784,-6.366071403002131,-3.3058950598573924,-2.976368117588523,-0.18148968463508852,1.576232142032595,-4.547437189781145,-0.7356759972751191],[-1.0290386933804332,-0.6421961514400599,15.20487837396021,-0.9537975112033061,-2.318535659173833,12.795225518042967,-0.9615678012517098,-1.1954214356712818,23.43062087097612],[6.7509259727946205,8.264060517101234,5.709397250525233,4.259223227233996,5.131253954273625,3.4330735475345535,7.587482929636004,9.683659740865208,6.057945625037415],[0.4972614156072672,-0.031098731795285727,0.8567379627761207,-6.8896021826987095,-17.448645153927156,-9.545408496033298,-0.5305950982049584,0.31751752360751945,0.8256666036484105],[0.7963645027743697,-6.8534816231908975,1.325634409472533,0.5392658381301358,-12.971685233526992,0.20110042163436725,-0.3067243162749676,-7.2543427720260025,-0.7921102426010693]],[[-0.19876712354127374,1.326919664166427,-1.602806967797511,6.3339067013293855,2.800292668724802,-0.27067371166164955,2.063570751765105,-2.621297639260238,4.278897324660044,2.1278751266372224,2.9812515331751825,1.7776101072014647,3.0986644083609534,2.2266669584832814,0.7322472125319528,4.393953448087918,3.2551876796409003,3.4208478062060945],[-1.1243844729113306,-0.2851235217876517,-2.9465176773202093,-2.1275117386192757,-0.003323559916784479,-1.3668115869897555,-3.8652384937033726,-0.06446010634570433,-2.1234370008399464,-3.335335439801087,-3.0742523592147637,-2.428518204118877,-4.613321107800193,-1.7425870662115992,-3.917836996892541,-1.838261930806077,-1.1978628899366663,-0.5268703740986503],[2.782019198363009,-11.726782314935708,-13.559215322835026,-4.34004087028051,-15.050623611124355,-13.889735051288934,2.4071043462702693,-9.739055079468358,-17.206443200297045,5.942524789192513,-3.275104310547516,-15.882767086571004,-4.020909357981871,-8.657311827496457,5.940743736099808,-3.422487875826988,-14.089415988127568,-12.525266745005549],[-1.9499462444132503,-2.2775295938868343,-1.1670022320201978,-0.6878694801569701,-1.1168890666590345,-1.5216672017214201,-3.7738552572127193,-0.801273721905495,-5.084223208782532,-2.925425310683141,-1.368169452386511,-1.4180659061700525,-2.7283449668351367,0.5723144707533756,-2.626257649509251,-3.736227456493927,-0.8167652700234599,-1.1034196870699844],[2.874790734845395,-13.885868166312024,-11.142452619481649,-4.300560099696713,-15.311721943023011,-10.630107953387384,4.833763417014324,-9.204928762305546,-2.991335692906729,5.324157964745645,-3.894554522655507,-12.074614349604113,-4.536001121989109,-12.03338387845745,5.671949198026803,-4.266122049601948,-14.340433008681673,-16.26367798534264],[0.03930706849872384,-1.5645179906551925,-0.7943963791243179,-1.8229163602138776,-1.4417563323534037,-0.48309269649879877,-1.1745694594872698,-1.7548193682212554,-1.0674476557832415,-4.455768754132221,-2.346279292778789,-1.6231733542321707,-3.927216166433018,-0.7130618792293459,-3.1924054602987115,-3.650480735427596,-3.153055067052408,-0.7744979034819099],[1.6615886744786872,-0.20567076388538813,1.067460406774474,0.4379641545878533,1.250245910253064,2.6994796211904615,1.1303365321454513,1.2632269386816457,5.492122016620307,1.8494609581498562,2.221410646901302,3.450946172211851,1.627723332891577,0.9001721149652232,1.9012200893955378,2.1797245920362776,0.5553976009068696,2.366535933339588],[-1.4776845869942932,-0.25466684145322466,2.6781974758375204,-1.6293635367990238,-5.340422655607097,-2.415833048960874,-7.625481407570688,13.226372091745635,8.577136590212296,2.700021048431358,-2.2722291715318024,10.103906353482072,0.12621219807484044,14.549541713115339,1.2919728966511288,1.847656130400126,-4.304160000153524,4.866524916362871],[-1.2214354826578824,-1.8474313714963033,-0.5055840007214651,-1.108044861977678,0.17809081136004865,-0.653608489458456,-1.9525071222872574,-0.5308927188861715,-2.1794345823640193,-3.1423508629422083,-3.6131374977016293,-0.9934150715605274,-3.3329311690193326,-0.8954100593005097,-2.568678694668938,-2.3358644702806117,-1.817836869264152,0.873212660942726]],[[-11.037804024241014,0.793613456049166,16.256397380112393,0.3771133984187367,20.271448989563574,0.6087985798210006,-5.523162838979918,-10.486981530337655,0.6677582167137658]]]}