{"Config":{"Inputs":9,"Layout":[80,27,9],"Activation":1,"Mode":3,"Loss":2,"Bias":false},"Weights":[[[0.7819615695461487,0.36581680788138715,0.21249164494117118,-0.7276938288977961,-1.0547685162688274,0.765372633039438,-11.559843778668117,6.676947051547272,8.186333920500699],[-9.549914804877792,-10.706465608164677,-3.177017734652091,1.8840262125920777,2.0726919043051426,0.3409968076431039,1.833611707268286,3.0665851910962107,0.5863358927475735],[2.891765190082182,-2.4356797052593135,3.3319464404532266,11.596096212961982,3.560023090681276,-5.763307306730004,6.708479524129638,5.410481933646338,-8.379973306112372],[2.2408138683402057,-0.7219990082185505,1.8254458913499614,-7.131078289973846,-19.78006932410551,-8.179457797700389,2.642415874257929,2.5734261508012035,5.051676176014467],[-0.9590162909902309,-4.5322908571217555,-2.199727688712034,-2.344133689123208,1.9160998255890072,10.236977869165717,-12.977766892287574,-13.896355163228371,8.349830523369858],[2.6783303568351733,4.403690320681991,5.096481861152935,1.7420384111739464,-7.788615242324429,-7.825524899316385,1.5528254792709322,-7.064907836993541,6.094095760568533],[5.621579910457412,5.056228133259652,4.951180521519722,-10.36578780342425,-9.291722267492068,-8.588712652083453,2.4497070875767264,2.2591213713702603,2.7623916741949754],[-15.10825711356593,7.6361337229674096,23.860087554192074,1.2875740753684006,-0.3090234284050279,0.34710338994726353,0.027718979134910532,0.26569672316325943,-2.889526439890945],[-5.470654302490951,-0.5513413042679416,7.2234762143147115,0.15788108130436837,1.275905888391455,1.349618985319107,-8.726341851467074,-0.4636034838964755,-4.107704025735614],[-0.5554423046122371,-2.4037071322010584,7.099712781901336,-1.26417291899406,-12.312809980584284,3.2159574102959017,-1.382482137933466,-1.1664472619301383,2.3813993932199535],[14.995121090308828,-0.8618582439220247,0.20732079667318146,-26.121186031367973,0.9305659320815289,-0.8675200337890718,-8.282226671233179,-0.4102017188820654,0.4334419994115232],[1.5094057912536876,2.236728211581581,12.053522201058719,0.7341898609870273,0.4104886660375138,5.675046213870062,-15.382879541393836,2.107193348417576,0.8840060857480077],[-1.177384979285897,6.127973141315023,-10.464696855136816,1.1811361881639315,-10.086084079578827,-1.055434991096721,-2.388782884168669,-0.8841018068836224,0.09326810284403367],[3.1151721867439215,-4.031586445383331,13.143224263848786,0.5664155113563856,-7.081983989714053,-0.14989857458088973,7.396229091650941,-2.310286564906688,-2.0868998334193853],[10.993423981094896,-5.608413138887529,-22.489241244031952,2.7781338822103767,5.253426306343009,-1.1850183187533816,-5.18844150684946,0.3565766258413922,9.467818001129853],[-8.578714848446396,1.7329856669945034,1.7464869604196154,1.1792381349734056,12.492233749409765,0.7970235904816543,0.6708438111777655,0.03585239773424554,-11.82648495197706],[-9.041798092996899,5.502538171066349,2.202588924345259,-7.279865166247006,0.4110131853853722,-0.8645713471638746,1.379589148719256,-7.523535320818985,-3.4010099422676903],[3.1632830326454586,5.56342182103174,-11.981050567691542,1.3271701065384123,7.407250005780025,-13.772893298855031,4.109842149204134,6.695083013547812,-12.271847338231467],[-11.136818198438938,1.352563650633772,-1.9892978482611428,0.5937172049992417,9.606502631316573,-1.5675485585557911,-3.1452499708396013,-0.7134132125932257,6.860305532715339],[22.40001135613709,-2.6508266223167904,16.7296682498942,-9.604801282913854,8.570229789330059,0.7970537159420047,-7.370803864613551,13.000201465940536,2.8211754858160134],[2.7414366754172317,-1.042035182850042,2.2273084167191914,0.1245568571598716,4.62890961299418,4.4869404817494285,0.9366532926508905,5.07567595866914,-10.160731155898844],[-6.5096663070841325,2.9004921407257895,2.095028181914959,1.367318594185741,-7.019298969097244,1.7271094315239346,2.7265220173400384,2.0815154987208286,-7.663963321604764],[2.1412270376355256,-7.306918721559438,6.40883149926723,-1.7764096864371621,-0.711836938053394,-15.269942821519356,2.172848962819983,0.8555647917376766,1.0334387795310152],[-1.3959292484799417,-15.332891860282604,2.0235070011270024,1.6723575832545945,2.1869947420582427,0.3546524752763971,-0.37802958755839317,-0.5348953966840791,0.1331933265538386],[-8.378831660109427,-8.619397557072926,-6.2735514958706995,2.127777096655237,1.4530412960201382,1.0977584304129588,5.331535640252308,3.9121571285962675,1.8849156847489765],[-7.101936334474547,-4.2758286869300575,-0.4216542545668176,-4.383388817682511,12.383299802157621,0.002089683443276763,-0.33597870212548636,2.7085438781450777,6.581272650589591],[27.992630352106396,15.575938644174817,-0.04373450065330644,8.587622043236141,7.445417283034271,-0.21826456606631095,-8.894512468685255,-5.4220653945394846,4.710038826207071],[-1.2471932008888005,10.505780508232993,-16.108135211787623,-3.082238652284014,0.08618692156831936,-0.5074768480083862,2.503585585622132,-1.2021366180737596,-1.5047709823725572],[23.379373853882203,8.78017468476652,-11.916986994781613,-0.24938366813456161,-0.4922591379815361,0.4830266217242604,-1.5497955138066166,0.20694177495612665,-0.5129628351124982],[-1.858956796374444,-0.3819231951433698,-2.0656523561235876,-3.53215816386098,1.5878272922888796,-44.04908589613729,0.35330856863826987,1.1264075006977705,-0.5542093188265853],[-1.750542659958787,2.1219710181084808,2.794046879339089,9.72381435889859,0.18873373373679925,-1.8263631240669966,-7.830401088363081,0.402414234872532,5.996546453507697],[1.4731498770418483,-0.010087005076966877,0.1618581714788817,0.17112567192260558,-1.1334270622114382,0.47577324924751097,-6.78718263981836,10.565010349489524,-7.151582338691354],[-5.089825628405201,7.070369558562987,-0.42790081361397037,3.579789310574801,7.001057722566819,2.047076078123387,-7.961442203136112,5.905995083287298,-0.5125524503508233],[-0.528125466711866,0.13312199893964605,-12.715439839806775,-0.46143831115182776,-9.470699936025543,-1.4261753394233365,19.22112903802542,0.7782418643548668,-1.555558807823946],[-0.9746933146969515,-3.0873570868767355,-2.77490686086584,10.701112933458045,7.766815565489977,13.05534166127374,-3.129985712962919,-5.216789969190037,-5.158371749951186],[0.2865613073115134,-1.2010407802156475,1.496175294220984,-51.20451201705072,-2.364281092001193,1.4947266347258634,1.0517858209766522,0.778092183752432,-2.2685065526803787],[-12.955228035420088,9.133906425372025,-1.585201843621362,-0.1670582079252664,-0.2985226172294026,-0.24693353217775124,-1.7603502450946948,-1.6004405802321826,-0.6518858468927449],[0.7665346186520261,13.621728346089407,-6.537692351959135,3.3354450549486625,-1.8764378676517335,11.54700671519687,-5.00836653625213,-8.719079747788157,-0.42865006002653844],[1.2565472722966158,0.42485266362461593,-4.916650283183933,18.58866618631792,-5.410972079001388,-3.543901882982203,4.022555530482667,-4.188408554527674,-3.7713963166394238],[-1.5682618259994296,1.5209834974648386,-1.468138477015592,1.7062197339262606,-16.227596325552643,0.5366463326629547,-0.8364539185950292,27.522378245910062,-0.8646819672002046],[-3.478692240433793,1.863547959742212,-2.6675729558568717,1.824420773607312,-4.592066443635437,1.240190382550143,4.730954452046804,-4.604875640091984,-6.221227232897678],[-4.065098367556816,4.1624769641693495,-2.408002259969521,-5.585124607239431,0.7228161318530523,0.5468322132992667,7.414091599646977,-3.0644124225172122,7.916605541586742],[-49.16359050944547,1.5035524278895243,-11.114321840003582,1.948827769588013,-0.04277129433392389,0.8468615481240335,-5.79960880812521,-1.038088554303143,-8.175563360941037],[0.3651723844283146,-2.326373491563919,5.480083035658423,4.424369595633704,-4.9635167047085185,-8.37023172575631,-1.498665346888716,2.3661273092482555,4.561670857210835],[9.642949522878743,0.3532207544558256,4.689567247903492,3.5044746876892474,-1.5980005992100383,1.7070429160759897,-2.8373956086925114,-6.71074793861604,-8.570433157031008],[-9.585411645466541,2.4314171891892022,1.7878731286073675,-4.196351443865571,2.8816192385645754,5.855910422916291,2.1403427373376784,0.13432253083156345,8.16200889936499],[-0.5927539201570086,-2.9263666612093138,1.7093661320620894,-2.252875373746678,-0.6118787138877818,0.4418555500161118,-8.155155497865668,-7.08565606449709,14.526741421993144],[-0.751682099495832,0.03673376780794725,4.003506723240676,0.9535454891399421,9.665348661738248,-8.492859735946137,1.6080966807389556,3.5950913687947565,-8.958470392010645],[5.875351790928939,-0.4650200389085738,-0.0759121981198054,-3.1445083583184767,0.4999357806742277,1.327504672344528,-13.860459223756768,-0.4084294272204143,0.5353047781206488],[-2.4239732136754144,4.818818612752368,9.284014086910007,-4.108928898107823,-7.006924897622555,17.298010361240742,0.3321406328933628,5.139433385180849,0.1404107748762341],[-9.182854454358976,-0.8115294800504511,-4.634629364706519,-4.163638669832087,6.652234632050425,-3.1671759132956345,-8.586120628761751,-4.930180671741552,-2.6913575450982603],[-4.922884161124233,3.634875237275676,5.1200762915281866,6.494509995506612,-9.53450759822153,1.5155934146476415,1.607784431546489,2.710723986264495,0.3169987407142537],[-7.907917654663185,5.253320022470393,-1.2485697055336809,-0.7521902093684739,8.724820257548673,3.063505012979738,-3.5778910544124147,-4.662571034789346,2.0558389764441323],[0.14424133816881785,-1.727423847565577,-11.72565374301216,-3.4609682470774374,6.598327231707239,3.3689466968335973,-0.6414050610230086,-1.9215020987915812,-1.6666943291064535],[0.29143693992972036,-54.047985428087706,3.652761971935559,-0.9731151583066194,-4.768578964950989,-0.04258933316373868,-8.72800508637679,-6.127829351065367,-0.011727993142648269],[0.8162139935438011,-18.96758181826247,-0.34588185090883894,1.8656934634346054,8.198514660106888,-0.4061493669047306,0.30877968957911894,24.426569997276413,-0.007224587232780652],[0.17956432115017043,3.757747334527635,2.6667387375336453,-9.134355980668289,-7.104408912696488,12.216210749366255,-3.261844033240239,-0.13248299663488586,-2.0214006986560307],[-6.643240990981092,-7.236871970374157,-6.856603239189136,15.870386414718109,15.636870747841314,-6.312519994830723,1.9014295618055777,2.1408148450966724,0.6915566346896297],[-1.970825839423727,1.9028998566348883,-7.03540839751734,-1.5098226373047763,-4.548082948972943,-4.44383474716494,4.42793371624229,-1.1553808909946703,8.219135394858709],[-2.707501161313144,13.132481535464946,-4.3764853460366,11.341833662857166,4.6586350896552995,9.478662554976099,2.584419662481538,3.125334787918182,-4.129343660059377],[-2.8720134003343354,1.9702779266024897,-6.607324650574347,-4.105532549159043,0.49976454933539544,-1.6140493220970256,-2.294505842545063,7.208610481634498,-4.28492695448171],[-4.030134318785083,-3.270163885763756,-4.262892793839095,-3.6968321598704192,-3.916139519949717,-3.5646053855871918,9.844582853496467,10.235465146169071,10.230164030957805],[0.48804121340770285,2.5123454038635105,0.6712041118404372,7.1686694560207975,11.96637102818494,-10.918548406928325,0.24243466749570766,0.8768993573559564,-5.590897415889592],[-5.539389432655729,-3.9106830308564535,4.68183028506489,2.5917336410079415,-5.30013009101516,1.921962841605818,0.687311495400833,0.4108177674551774,3.040228871504795],[-1.5054844148661324,1.6601258305131332,-8.106039088959843,1.54512768816174,8.566031407126744,2.2910195022110407,-7.1507800286923375,0.10986210152841987,0.4670628626162487],[-4.600795683307957,0.7995074832284291,1.7288226290552753,-0.11990666910326865,12.694452072792673,1.378569258008443,0.8075211316437317,0.2603783314103499,-22.764875753502533],[1.8257530930419912,0.239884064151212,0.20209770040921118,-8.521741973012332,-8.088945688797084,10.007629814887565,-3.525363063068601,-3.2671497688783058,-0.7167323447426095],[-7.257919740564235,3.992782400371147,1.5557429897554131,-7.137259660973984,3.5523054892210975,1.4069077064136202,-6.556349070800254,4.9567566532478935,0.820839482562431],[0.10345891038557763,25.570224250813236,-3.6527208917829204,4.218757493676117,12.258175230844797,-6.63838517160676,-3.6378487693034463,14.564586901993916,21.254342249540148],[1.3888860678670232,1.2553506444295082,12.271607797569342,-0.04430783082801735,1.5299346247991525,-8.745793283477559,-1.197039594501522,1.2947078112412995,-10.087746855726536],[3.626696640363876,-10.270832989108229,4.939385177972128,4.093654286378453,9.322663505258948,-2.91878231408454,1.397995543135753,-3.600414411397859,2.61069530592905],[-0.6356414984702118,6.79850560218856,-0.21098125392232359,-1.3013243316824366,-11.821066462567767,0.7397424013082173,-0.9213289604539038,10.10538359144742,-0.26298635549456356],[4.26041159526343,-1.7527253637965274,-2.5350558788146005,-2.1197180272746774,-0.2229854872854512,-0.5575244449659066,-0.7606110499030029,-0.7705815475665919,-13.86530980154995],[5.730995184884252,-5.142023616019141,0.9971609044097833,1.956619626925883,3.635835055046595,2.240333972533702,3.355270971315155,-1.3401617443390763,-8.367661449068143],[-3.12517694980526,-0.2127365725498993,4.722883831191329,-3.2612150240698146,7.822563826234806,-1.4882043820049167,6.351348293004664,-1.0757362282583782,-1.998063988091164],[-2.7462806879911814,-6.288646988823971,-4.306140593304805,-0.9404880806422873,-2.7341364723602535,-2.4782441142099367,3.0837815430929476,10.49945622261144,3.502362365498049],[49.58347548971545,30.031049613617093,-10.274734155210433,-1.2958936817719673,8.020298714109801,4.229074757880575,-5.199308608826977,3.0476101534547833,7.940363195328388],[-1.4985008550224168,4.589670749782326,-2.1402566348282086,7.100033667362826,-3.894360940066312,-5.8218661462344,2.1773297024729543,-1.0916092358970297,7.902292186707095],[-8.27107618785712,-2.2885683511986072,-2.566205621576311,1.4755694016584713,11.921533979954937,0.6379797398892383,-1.055370647566829,-4.824090061742759,-6.452963546586734],[12.604728867644932,-6.882031063317255,14.878893005395005,17.536870464682668,-11.287259092025971,-2.412621056910231,-3.802115982845101,8.170668254215022,-5.446532242423392]],[[3.8993299107244224,-8.054372298906959,4.675285435526179,7.775341858391695,-1.1536567322055322,-2.181373063902912,-0.3623474703467608,-1.9303009557202229,7.523534975827986,1.8623095909472744,1.2027365029073251,4.3318112225237675,10.493040228394912,-4.166173839117871,3.866985104559601,2.699443061305068,0.6789957066467004,1.5003538700945842,2.1909037939600813,1.319390738604673,1.0425222361203856,9.118671151939964,-2.248128052251352,-6.486324856979081,5.527569077045376,-4.001901394705518,-1.4970121400695182,-1.3990268431836381,-8.829600759377334,0.7005585250366845,3.679059568594673,-8.602779033910647,1.8483423407166928,10.6399033951418,3.7410788815115725,-8.192738467936131,-4.471211566864148,-1.46488617973435,-1.2711713114694467,-0.28151307351921634,-0.8785076591008253,2.5096819296601276,2.634992818533756,-2.3677270006691584,2.9857242340980417,-0.3224138279030365,-2.907980320730291,4.271745002546506,-1.926228343952393,1.9420860659850812,-1.0569810094911214,-0.5653640355899877,-0.2570499546539442,5.856006108807617,3.5224902063007293,0.8255959122585363,-0.02203154054840541,-6.06422475655326,-3.543396803802373,-3.8783170149562656,7.5112545092551155,5.3423323124620685,-0.006593042730295057,4.384153026682768,2.017589614625927,-5.993786212539783,2.881109608221875,-3.9000825023131562,1.2241284382636997,-0.18315369201011988,2.4355220674803966,0.2332922729379925,3.865672171685134,-4.944259648871473,-9.779606044824895,0.16556612421338504,-6.207443380114852,5.538572456739849,6.080254563497649,-3.392338486911356],[5.713237403658731,-2.20368939964045,-2.9625888348037073,4.01719767143238,-4.860553363460391,-0.11842973833117504,-1.2230535564548006,-2.386508893613541,-1.5450046044268286,2.5421976223269107,-7.45658861081589,-0.645804894749863,2.791429289460711,-2.2336449307449886,-3.012904902705248,0.2918131089473616,-10.505171475571649,2.49747668648585,4.467398269285409,1.1857741899296024,-3.9814049641939953,-2.994916365654085,-2.563897182963913,-6.185943833333506,-6.990021177194056,1.6941706211888772,1.7000067869210622,2.8048573756844193,-1.5500274582902611,-1.0190877276619767,0.7528037791459102,3.508095573464286,2.3209489229153775,-2.6609905696638365,4.922988057298293,5.10761009519745,2.7215166775153317,-1.753816345693755,2.4291855596643326,1.0711174672189778,0.0374465993646271,-0.36112823997019183,5.962409662664397,1.0267314081391463,4.614448622698049,-1.6368447588648662,-1.0251452768551441,-1.3508578715121342,2.438358774674226,5.618482206433094,7.442939692687822,-0.9258027125577274,-12.959951900428095,2.0421926654202247,7.938583452723054,-5.549935055307036,-0.316368786461962,-3.275268424501981,-8.554107436254432,-6.17894627897429,1.858863482492521,-2.4211162541512667,1.0871356187419685,4.786896080846568,-1.8150249556028881,0.785130551213431,-0.12647250563442916,2.815124310676401,-4.540646705982737,2.52007574413821,-0.4703446834743479,-0.5395965285680755,3.74966515653336,-1.675062876136302,1.806529147166615,4.876052105328604,-3.9437037816042286,-1.1963345665005525,5.053281464223805,-2.096557193876947],[0.6060812818717479,4.253931376724622,-1.1642264611450328,-14.83982918320903,-4.096490930360194,2.2557221181596847,-0.9143589890001204,-0.9842982352698807,-2.0728195675631778,1.0223867422424673,4.607803532481946,-8.60626306377925,0.584494697935344,2.3447697217920638,0.1355349717043776,-4.894590977627381,4.035481495909043,-0.6892196286272111,6.3775904266289025,3.1298846716436053,0.6196733131616542,9.721390249669874,-4.651683904160871,-7.248770937067638,0.5276088490337154,3.9896795350275718,-1.2236030804354936,-11.936754369156729,-1.9243987682726065,-21.46298327448776,0.947916078149016,2.764801931458116,-0.10653455370678017,-5.627043532915467,-1.666264928609853,4.569294483754237,0.9882341963114016,2.5808652919689266,-2.9238056519572657,1.3345705340530047,2.929268228677048,3.790230426358467,13.627186520502773,5.401331781226324,1.99713808646791,2.285503786302056,1.2128893256389823,-13.834797875457223,-5.069470707663958,2.197781027539979,17.17881043753083,-7.190302663619729,0.7839274747753174,8.308724416295796,-9.716226425017705,1.7985640095686084,1.357660836957927,-8.009900483609194,-0.5874111399243185,-2.291802535973505,-3.6204409272163653,-2.375972082571169,-3.110989644822987,-0.5897762817828351,3.6119078199004933,1.5110467960262375,-6.538429792808814,-0.37641684021070465,-2.8346780519602994,-8.99974099473872,4.128034354889869,1.1878115522959547,-29.192685070716596,-9.27123695326761,3.9623864221447143,1.0328689073007542,-2.2176299002282653,-2.16499909168382,-8.917513805991094,-0.24933419819381364],[3.7501681836573337,-2.8953914370788705,-2.0801722931587627,6.766771439636096,-5.313137346133752,-1.5498832692414424,3.388676557804644,-8.350124653307269,5.498676722609873,-0.18898348386593838,-4.50660147118616,2.2374969785686254,8.14870609440202,-0.9904393349191054,-5.110160579405642,-7.177089451376369,2.3885636979789555,-5.725683931341773,-2.989043515191956,-3.603249590008288,2.760161388909154,-4.2863217511008145,3.5944688718451543,7.602743890331966,7.919082657425395,0.8757887803357448,4.132758996264811,0.19322323556617402,-0.2262213600838647,-1.4789774585525741,-2.91988806674634,5.600979665532605,-1.5634484972812241,0.9193179308738119,1.7040820084314123,-1.4230603874911412,6.243123701035877,-3.2770306035673227,2.9080019649423243,-5.036350998753839,-0.8197719478174947,-3.663623947121761,-10.26508498353267,2.473928414196615,0.8945380408327658,0.9835142969994491,2.5417915532655693,0.7446062007103924,3.539801237790782,-3.3124273643176725,-23.195477931855145,-2.4410115796924714,2.792382017450162,0.5743496694516145,-3.9149416644114345,1.7274189739903165,-1.280570631064325,2.347191980155555,2.0440065313898366,-3.0182523509308767,-7.21181180693685,-4.626139594969942,-3.3007515261502536,2.175706613607028,7.456524935119713,4.969233158651301,1.367379917707226,7.158134004398116,-2.37068489251704,-9.342166933586967,-0.6940267001042013,4.726662064696645,-13.95664241924605,-0.42744335648884146,1.014926902779781,-11.434872440728167,-2.9066224003568046,-5.037872687086887,-8.908806028712627,3.089300248073979],[-10.182667160912631,7.524040769433422,-0.43913765607465194,12.435987178207984,-3.231427884551013,-3.2341111925112913,-2.19390698013659,0.33845180402482977,-1.4310745223351786,-8.53872780147041,-4.92320385662782,2.5847703253596803,-1.1327164124909208,-1.476245878283373,-7.654860625548578,0.903203525218865,0.406640122808552,7.390634510280013,1.6479266204246008,-3.6156097983028093,-0.5752373474575344,4.612376188715137,-2.013984885031107,-4.454569238130082,-3.062098575673017,-0.727667205098082,-3.1282017625873006,2.0997594185797075,-11.398793410828082,10.159948229732882,1.325738430139851,6.497083023675281,4.40263054882742,0.3201844583202662,4.1653623373637325,-5.5611589372585675,0.10468111325213793,-2.405998837990843,-5.938079733279421,-5.720577040346746,1.921815789485119,-4.636209970441634,12.555425433360316,-5.4586330189475625,7.365982894207675,-3.3002018107907345,-0.8816239269058685,2.3505747324675994,-3.3060925176172598,2.8301507982380354,21.292455253741757,-0.2217709726085687,0.005850148831453252,0.6808016724398961,14.830048581424041,1.4811528631821653,-0.26845012367169563,0.10022288159002544,-9.386106158070204,-4.49193913786971,-0.9053873718670818,2.9147472922564592,3.508297357584708,-5.508088420381568,6.516205899668629,-1.6016402502528266,12.38139265654447,0.5797727715250304,0.5822907857234582,3.865782010230774,-3.303431125517926,-4.384955503140183,-1.8827422629104535,0.35104077403926714,8.40935831078385,0.8944405066110589,-5.633482493820658,1.4347560083367863,-9.132792789155591,0.9609070919169892],[-2.3137147142919168,1.6540975362444201,0.6501777068882375,23.293650030149493,1.4903718056784319,7.938002732398507,0.3701007064775101,-4.651467283745231,-3.5429823435375627,-44.79184994521524,-0.2871286840104973,1.9465367395900375,0.5826990290989873,-6.584486601391801,-2.7779665290218523,-0.017507538474026814,-62.09683705318944,5.963027162451226,-1.5983277409531436,-0.9496475046157394,1.1282843826710363,4.070450873527276,-3.2453581289031965,6.287238931430891,5.30544920137559,-2.656283116199502,-2.308021625311212,1.0690466231952058,-6.809056835888203,11.488820860528916,1.3340319069040456,2.454906378632056,-2.71712314874311,-29.474027077531417,-2.2869588449788494,-7.795527728639343,1.2436934474743655,5.913151829639453,-1.4146853887551987,5.032424000823476,-48.54905223876615,-2.7548158525002933,-36.21572330665972,-7.919696303166289,-4.581921713267472,2.534404630606726,4.743541890555836,-2.862599974886744,3.488809415534397,-7.0953814936583814,-7.950530198154732,6.574638063978677,0.9127312029904778,0.22290940876488446,-12.504992229949057,1.3213813971910338,-4.940319588971193,2.098276717367518,0.49994791334181987,0.787696851850868,0.35823768825211544,-0.3972365778249714,-0.05105019916021074,-5.085399491497649,5.3103283358975375,4.143765294952577,-1.0038764139582204,3.6471270134392535,-0.5929904615886061,5.751337419209765,0.7946320681903296,-13.581674605835314,3.271128895151392,-3.8321290808063155,-1.481893353622536,-1.8340423789826745,1.414921431116285,-13.508285075521087,-1.6490938094989938,-5.002362841926568],[3.940889855830758,-9.195479300427017,-4.206822490120776,0.08334304070263843,-1.2887285282931928,-3.195636120773405,-4.003155124625938,3.0954454245555314,-0.5011479099829058,4.174593675200829,0.25112732543106014,-2.9146200364733126,-8.74666477666684,-1.27485879426858,0.8436810422714668,-6.652198617713684,-10.207072644327708,4.980539816124065,2.313765850590553,1.593752736043528,1.7120941103593343,-4.024084773131188,-0.336214931184901,8.544129094280024,6.817696420232066,1.936223313987013,-5.048900110670953,7.004168046841859,8.95522720898621,7.352443489899695,-3.5878902629391747,-2.4440915151735707,2.325318433623358,2.4403004076682975,-3.3755885674883275,-0.8434385282928185,-9.092484346033476,-3.3172685799123083,6.961782851122495,3.927382918576232,-4.17904677877169,-5.57839528205695,-4.970986303968648,-4.2287262584866125,-2.0706231750139845,0.33150799046135265,-1.3339902910038601,-1.41698702011944,2.8285479569190852,-1.2365646482659305,-4.179915385249485,-1.311513543972055,5.070051054141089,3.304248371942633,1.0716573505970022,4.031617661316365,-2.47191398354465,0.9505604809718384,3.3920517942908743,-9.525120873115059,0.989374411551807,4.337218210318252,2.700888380391156,5.561068562476688,3.10324185165655,6.226998121922258,6.689760041160459,-6.750615255114239,-5.903334884722859,3.499154396267203,-2.535337203202021,-3.225442600312286,-6.4471475624870624,-1.3614307396441971,1.8387395540969331,-4.1564113498066915,-2.611410172480168,-3.4770735514229516,-1.3865944432689201,8.4884650346601],[5.634285578314661,-3.47382887225172,1.3191539455657917,1.831318061595399,-12.486236402417514,57.097788794444334,39.830477847767725,-7.526580643800607,-0.3832783324377446,-4.842123393716894,16.7363710715972,1.2599763391236636,7.52944859782959,6.77860944211683,7.921226330666398,0.1385455212629785,7.437386006858405,-1.9765808771872149,-0.02925205131071728,9.108052717112601,-0.9465277215023112,11.200185857500053,-2.6422840805145085,-5.476568212291365,-5.884440173625792,-1.8324642050644955,5.130432093351049,7.849122071714711,-2.5089881185645453,-4.791367077629788,3.3512081767154815,-8.093551681524781,-3.3538443824907724,4.051323275703179,2.1203871810594883,1.8535365794563186,-3.3300952561056283,-0.5075513531136322,-13.334641220938963,4.454674221222094,9.304703439554936,3.9247282027892134,1.3416008382001634,19.522268034999218,10.304398406581226,-1.8188009387053599,3.1540408699408555,-1.3373332443045007,-0.1430768898531979,-2.031593880982344,0.9474657203115959,15.122666647647616,6.131006069935569,-8.762648280841894,-15.092275100732415,-3.2195069209715843,-0.3841381866197813,-2.9721641590953802,19.288366736961365,2.6923418671640698,21.24805681586992,-0.616647779552967,-5.564110220579537,18.020897031808172,-0.0879152679537633,-2.483993260602239,-4.910974536476881,-5.110014299290035,0.2868838166233484,3.864009397577592,0.3731724949641934,44.679020442280226,3.779464106343031,-5.321591627727573,1.532132400512343,-3.0768501689294454,-0.25284660805594444,-0.7630147765280053,3.2200100947200148,8.578141426232914],[1.3596551545222806,-9.605377349213251,-1.304497582980996,-4.107490184810724,-1.9838495264797378,6.791057907341408,-5.426941064820821,-7.9076092909686135,4.452763385849267,5.979473706835929,-2.3095930833140814,1.3186661468464367,13.880324494294367,-5.838280120971481,-0.4796110503136593,9.905931112541948,1.8389171161672704,-4.8547327325272995,-4.6373048549136735,4.740243606147812,3.7439234730708386,2.063342279769673,-4.0360734619409735,5.91713756929394,11.829595229230284,-0.5691116683401268,1.9249862428401494,-4.008417500611979,-2.2608388674117608,-8.549599879835519,2.067999979221949,-3.4644005262238706,6.910487461074803,3.2572674641961896,-3.6898986558878626,6.292850028211538,-0.7602849577297497,5.3866976889743325,9.117740884192102,5.342558143149467,-1.2792060202412558,4.098041005255719,-16.492310907427616,2.5146855814423117,1.4377132325968114,6.999895760956418,2.5250582495139176,3.748514403847879,-7.259927740035861,-0.3158051846686992,-12.275759889959946,2.4519602089174564,-7.3702363585162916,-1.020968226221232,1.576389899159645,-0.8779942587544418,7.976226153783846,-0.8809866252172454,1.5882969546763583,-1.798006985119368,2.2174575016229228,0.12792107664364563,-2.2412895840733875,-1.4171278991616103,-0.3775462693055592,-4.745525514192,4.755768333830514,1.7638486342132709,0.4645731912628228,11.5922466589878,6.415193710421253,-3.0861536522483712,-4.857015063535617,2.5321285947786905,-13.210243852239698,6.663590827741387,1.2612238215140172,-6.555662800884714,4.378345193989243,-1.9202427465275094],[-6.470529032078609,1.0485081680130734,-3.251415613595724,-1.8259746133011103,0.3218793245043101,4.2878086121969,1.3646435620089916,-1.3727925900244957,-12.915429523578556,1.7616577432391125,2.6556322276698783,1.146554838854907,0.16619300236951426,-3.651090626623572,-2.224659356041787,-20.73230594347844,-8.306902930985139,-4.245006605427849,7.782056086754601,0.07638656448450463,-37.785616215393844,-10.053993672000834,-1.1569169950406584,4.733184781090931,-5.264647195271662,-8.556558293851612,-5.505118307052692,3.214129229764203,8.91632587551941,10.898284227067597,1.3370200910937513,-19.319344473789858,-8.004802223134766,-0.05303579788118408,0.6348209833645574,4.54525716518908,1.4200170242770964,4.391050223906668,0.16264814101036099,-2.137163655143053,-4.944439332838834,-0.7956220455731946,-20.386886554341483,2.482175664052035,-7.804974608649058,2.0692059902132063,-1.0838417482833478,-10.373316788718855,-11.501781071833879,-2.5165940815026135,13.753793155559904,2.3853526433575887,0.4865880478471992,0.8938197998195334,4.062512484881519,7.1140261260153235,-4.54092707837298,0.054330631355539144,3.866011753895538,-0.8966748290053328,5.485345888875216,1.5525090612892145,3.4914876529106893,1.9125742523262,0.7337962403494147,-27.74598781243153,-3.1342109002678917,9.552743960185992,-2.1410529812028574,-52.495410420064594,-11.398390768349092,-0.3567757392868031,-23.537280787837492,-2.7493730816759587,1.8063898118534523,-5.326307515007801,0.6646250021972274,-1.0267046314562,-2.1117361541130233,4.925382383724775],[-1.6191957340234742,3.1181203659121657,-1.4135986838738848,0.8312686487134588,-1.0985634756369385,-4.597278333009127,-9.501025180746518,4.939323255999869,0.33904541032809005,3.166107436327234,-3.5814731166587586,-6.817422741982904,17.273189848278463,0.4099578835510695,1.2220680546933826,-2.737969620849161,4.031286075441212,-3.017347846375831,-7.344554337818671,-4.31144198423565,-5.67166836256078,6.88364726978875,3.395797831935159,10.65399463323578,-5.8875367916607075,-0.8781916952161762,1.3419166921235728,3.806388450468303,11.378157344181366,-16.714595394844665,0.07852416632329053,11.34380002807731,-8.715366916386047,-0.6534985613950929,-4.991007119114321,11.698705204702781,-26.104318320787318,-2.847242186713106,0.9453926447577237,-7.564288001899321,-6.302258670815386,-8.609335708310272,12.029282337325244,-3.3215133034938464,-4.491392709597772,1.7113437281195913,-4.547723762464858,2.5630928275122358,-0.0854367486737972,0.6308936356475721,1.736164869097124,1.396399756495421,5.230388642070064,-1.8757669270674924,-0.8092987425268494,4.036261569143923,-6.274119508433916,5.510766908623933,-0.7461647919072014,0.9900616716274148,-1.2805511010647639,3.3508968163410917,-1.6139150777697842,-2.3184204239260513,-3.9702486964707027,0.7832723841254975,1.009425075680418,-2.031419814965144,-4.614351273707162,1.5532712629137695,0.27062606555166135,-6.379484533645612,1.1344357326308228,0.5559924113246943,4.796993526594808,2.027312350660249,0.05691118788505414,0.14023486362138624,6.888810818384449,-1.5365549676768737],[6.601190199071272,-6.812718566969873,0.7482024230603405,-4.300771423513596,-1.3403194189647052,3.0798327505559455,-4.230563081667812,0.9150699971168405,6.287280009601318,-1.7067274140894981,6.799798876529071,3.4940994727524752,5.281076331832781,-1.3770067141473714,1.6178340510121214,7.119233409391163,6.429802511434559,-4.4811553228030645,0.5315656806480635,-0.37851028275051024,-5.324978028676537,7.262160833232806,-3.72311587976218,0.15442694344369434,8.601549916305393,-0.6247015521782739,4.357758606339784,3.1357569990679472,-0.25923331369600267,-2.1575901561797837,1.3627413219353075,-7.130583828369386,4.822235991070099,6.154230540278392,-5.796433184915204,10.52635277366588,-1.1578535737741373,0.5353506880545263,-1.6981337864871993,3.3457110259189173,2.0322708464515737,1.3772007304074847,-1.8745081228529508,0.3026274676734026,2.6061329068834094,-6.433986912404936,-3.4291594746261422,2.3193830872812597,-5.96779308203376,0.4862975234666163,-9.004904072221704,-0.7753690240287863,-4.01636427964579,8.37082953169324,-7.161509419805487,5.402626604429863,-1.4591620726357515,-5.579951464444092,-2.5722351930805916,-1.5113219561132873,1.1269629473819371,3.3383679933626325,-5.996650142570058,6.853226838434146,-2.126924212350392,-3.52769447195769,-2.7404036631597464,-1.404975335245722,-1.6661616517538422,-3.2574664395466617,2.367755542793816,-3.1358345052895342,4.744066528787811,-1.061595144916229,-3.485510138684953,0.41348348245466243,1.824561034116796,-0.26760929910751796,3.3767482899657812,0.65090990973456],[-2.827406834615997,0.9478393101471259,2.1934766953869613,-7.112420530969219,5.544830625318406,3.101599916493479,4.481985779854466,1.1272855674168833,-0.6619595268616496,-5.16468919525766,11.062862069468137,0.1304942436403632,-12.22877078321294,-0.4125425330574141,-3.3050388843809175,-1.653441954768903,1.1851219615196995,-2.775908318141959,-0.9287815338738763,-2.8553215571984834,-5.9431326176039905,-0.005026399531647307,-0.6128874538150585,1.533826600678755,1.5883592748630488,-1.9740316350560363,-0.7244339118812287,-3.687351963346108,0.26002864971955625,1.663569372940385,6.170613703315336,-4.038937205078685,-1.8738145088522906,-6.5655590611889805,-1.4165621403825381,-2.493431633878989,2.0487600097762573,-1.7174965937481723,-1.9648611634121802,-5.723993490543957,4.15516327845664,2.19900265271856,-11.459344377902255,1.3028373249886178,1.9309655778029473,-2.5098864034284287,-4.558029382367568,-0.15788917169538286,-12.745377204670513,-0.6427938685995183,-43.5440110025938,-0.8542051423464991,1.3140067014787535,1.6756851588904884,-16.886914274383933,2.3029109513531987,2.8726323413262245,0.4864440777431317,-5.196520554726722,0.2461681029019947,-2.25978669530709,4.5302802584085216,-2.226916434363271,-0.08270662678068294,-0.5872268356430984,4.932096739861019,-3.289985704035923,8.330789547507058,-0.5325768531342548,-1.6046572350802215,-2.0305063995461317,1.856542093032846,6.204874125368584,5.72439127654753,-3.721661415977482,7.077153934002277,-0.665557075375338,2.1212119366912887,1.361683090928969,-1.7329413841854437],[-0.24715277360156968,0.07514210147335951,-1.7832154135484162,1.0651503957717392,0.215806179195988,-2.1554917879048907,-2.53098611375249,-3.9608505907777163,2.7527554233086953,-5.360031659707423,-4.249668140759562,-3.2923446171470183,4.03970141561031,3.760178014887858,-1.799841869102428,-7.0499274265855725,-4.085016813332494,-0.19951093307157552,4.616468994406678,0.5650134302645062,3.927197775223657,-6.830975442836884,-2.294415644406929,-5.4728588444956925,0.7049764104092254,2.3163703788052223,4.973698476675519,-2.999601951805999,-1.4224723165433837,-0.7194096147823607,-2.9958115309553253,4.504039524943345,5.640313847582339,2.0876150907409152,1.5208970754367392,0.5490071540600419,-1.0044886947652272,-1.9190784869448676,-2.821607693173462,-7.392623061045213,0.6421916452296387,1.679953189465993,5.939833674318647,-0.04436299152898908,0.15369442624605725,3.1570553401862327,2.875779190318258,3.095144184965718,5.894552690341035,1.262655415853001,2.0311342383211217,-2.954615696563832,0.3500870972005476,-0.6689961549796081,5.830556992825429,-0.9974370059194413,-6.074185796327218,0.0815066012513499,1.9565041908344014,0.8707277657001405,0.5184115202278862,-1.395533105336057,0.8763323035310882,0.08430958040753041,2.502389690746739,4.358950357992278,0.998783584656519,2.3529714177168364,-3.977356721258658,-2.277164288659376,-3.258715943936983,9.785395351701538,0.3842860988180914,4.073199752598672,-7.34588162062677,-3.157431956282649,-0.4153512817840734,0.008517659590607666,-2.2234287717993486,-1.535566220761595],[5.601536328253907,12.607272563289936,-3.3187462086416435,-4.749835771004434,-11.114001839988088,-3.88935475793418,-0.3300256752225541,-0.17077544946040982,-6.178433901540481,-6.590327035056733,-7.096014395729858,-35.19041969747692,3.44918926818602,-0.47591076862168663,2.4836721010578318,6.364963282603408,4.3722984281760935,2.891915784000947,2.821862525568579,-13.752039776995122,-0.5089459938009854,7.0796285494188,-6.859038040500731,-44.37847309292922,3.527350472757435,-0.10329393035848339,-2.1822054189301325,0.14141615702207772,2.159654685050443,0.0577896931287079,3.9292193866106997,-15.528620786900122,-0.7687704892542024,0.46007499293211135,-7.768942339530129,3.3258039822848504,1.11378152552465,0.8672788403037054,4.401786289616713,1.478501594785445,0.14008980944085006,0.18523155897425453,-4.956595812969437,0.6308287042440569,-7.233120394260275,4.378372889046953,-2.7001044942182215,-1.453748806278814,0.885832168159682,1.883402584584113,9.047203814926158,-1.3736424199349353,-4.429481844834495,-2.9793212738596933,-21.998147147182916,-2.452143415292626,-21.95254234524864,-2.4492140738638395,0.16864960186930478,-1.8055430011081195,-8.43275472154287,-3.659632616990329,1.2706995990839611,-3.8468887193477506,-7.558345265660543,1.990883988917047,-2.84682077431395,15.593598722655198,-0.2467045422045204,-2.981098451234959,-3.2764648607826112,3.2021615934417222,-2.094594430645722,4.996296799860778,-0.7275976389903075,0.1998144400877938,1.3710845177946738,1.4082254591739776,-6.542761602245526,-4.6819553531470595],[-2.2237468859204585,-3.1890203334036427,1.1412111313248874,-3.82029266444285,-2.2965401742334466,-3.5269261126839497,-1.474366471394956,-4.981169475554521,-1.001543113497154,1.6602610690869601,4.254434023065493,0.5994207845425268,4.861650194750983,-3.0824075669775537,1.2379245248839275,-9.55229957140424,-2.5879914777684285,6.017375653001471,-0.8927340169431168,0.5982380815633576,-0.2585287073730795,-0.582086080637392,2.1538973251284386,-1.7204817612410597,2.2777372015499893,5.359032702677874,-1.812339528515182,6.584083131568969,2.216701312273448,-5.8192326511579395,-1.6294893378316309,0.8820389937024721,2.4523533002774576,-3.3235090625181005,-3.759625998279163,3.7414649682156593,-8.56278979009614,1.9820085931347962,2.9538572263550726,-5.602321664057141,-6.6396220851129995,0.33038710054640114,-3.339459398821078,-5.370513597616593,-1.4699750586541658,-2.8846053236551157,3.415630175782205,3.624191566097411,-2.251201579871511,3.300344706778143,-0.0072027768093801,3.730468187360794,2.47671226621927,1.8811120167833257,-0.9181705569373507,-5.390748837468899,2.240874457845734,3.3520070605734076,-1.6451912844979282,-1.4274535411176332,-0.5452043260703514,-1.195587145810284,0.2508433193581437,2.5887321684572595,-4.822752992322375,8.548609730707103,0.41342066954204004,0.19283443406488043,-3.5873424501148516,4.423072077395003,-0.6967378743861373,0.34515805567035196,-12.513024533319719,-0.13239855703702652,5.114206871675076,-1.6026691025598403,2.7657297290080565,3.1114763311013687,-0.8290997865882883,-0.32894042128907275],[6.060065913183338,-18.75701005589189,2.2932453264142043,-7.290101886692319,1.2416089631630225,4.605198014001046,-6.893779454451007,5.310534143088167,-6.78813912723906,-3.7140407120202545,-3.5946406972426983,-2.851212785843314,1.559931190582675,0.9144032257629083,-4.933152909389367,3.1984875087973257,-11.595113956901226,-5.679187465232588,1.6764385368259496,-4.805106344097089,2.1010369333745533,-0.5697253037626077,2.413962482139542,-1.2593504146397752,14.647454896278383,2.6717731248971113,6.296976737283481,2.825408998307368,-0.10403096604850584,6.77710045650636,-0.09750136345052862,-5.331398548383334,4.633472191417114,-4.965564612968159,-8.274134073335375,2.050412327946252,-16.090077615610728,3.785700406277142,0.05117829080320924,1.9956554255515517,-4.8723138932920085,0.46388779078046183,25.81121409364823,-3.460983020653948,-0.4173632132826854,0.8985513523827355,3.1635035980754878,-3.4808411273635116,-0.3909984241295166,3.1359045572081383,-11.043545679725646,-2.4266422831812,10.010362494206305,-9.353297558360824,-18.525209309701108,-1.4821697233574538,2.444354188977855,-10.416433843627898,-2.7026340232563357,3.779971522409367,-1.7136776076284574,2.8837359823624906,7.333713479883262,1.3295643017661463,2.280300242687317,3.7750275427686275,-0.5201098761351372,-4.782309624666522,2.010182440230729,-0.973632597885711,5.204445496837918,-5.811674840251151,-1.580678368144205,2.9454271411935835,2.2730012571464187,-7.24429190356185,4.3612999418031,6.57050017549285,-2.3490776862331826,10.85331609698221],[1.4603496911746943,5.917304458619671,1.7027519786928733,32.82533874795048,5.174268743697672,0.20530299179785366,12.517273666305526,4.153323990180885,6.147260434934168,39.26764729808237,20.352509836981692,-0.5615785958106314,4.393770905506578,2.6418942602993294,0.6849654071171046,-1.6252490692646666,1.1211276052162689,-0.9055897941951346,-1.4549141181030452,0.578375664460112,1.30795285801207,-4.375699537766095,9.345629035025608,7.7973843772914275,11.852767448275326,-2.5815905646163726,3.2685381978028847,-4.243820853829819,1.9117683878013598,-4.904121613928637,-0.46694005418288115,4.5850405414604944,1.5484343105084737,3.1757968790788618,-0.9278102249455321,31.814503881747182,-6.570127641897756,-1.7356769807573178,0.2979909338670465,10.411033496210488,-1.946363656478654,4.4923574733986475,7.699156139297987,-2.209363821507714,0.7485875399664754,1.7938510089348123,6.722630618842267,-0.6691205162483346,5.846935023604987,23.784242630700884,-6.301115765956456,1.9510231521763124,0.5080559813351624,1.017254096148646,35.45735180312207,-0.6591260618599133,20.735454416708667,-0.3178078801254659,2.171771256764264,0.7683785778909613,11.146413358704493,39.20213054572592,0.9321306224516618,6.391417089831333,0.6927761931333818,-2.14652023035215,17.150967884138936,8.971890612658537,0.01649421141426869,-7.012620750906482,-3.752463984518753,12.906054726311002,-0.10751383038071607,-0.9293983532915937,-2.777047713416693,-1.7971888938551233,1.996528872108934,-1.1056537785444132,-2.260330645523841,-1.207190002815544],[5.229856319867011,-6.773432937099034,2.944979546279608,4.873211437739844,-0.5006544354610644,-0.19626115008655615,7.648976587966892,-0.38684722205532285,-2.9723492629047503,-5.557587632170747,6.538729276635326,0.8624084541043867,6.509396353842425,1.149067825914405,1.119945626075158,-9.640796225318038,-2.426163873003078,-0.7399178124313005,-0.655513036756925,1.9401727126528703,0.7392831467142573,2.5460883593989045,3.9452559434178136,6.034474183096422,-4.914864182124246,-6.9386538352237555,0.407330675469921,0.09108664596002083,8.699472354022818,6.146146076412414,-2.153604194130131,-8.016867600607673,1.8398212818309758,1.4705461128288329,3.2239054084177683,4.475156538367192,-3.394723946886247,-0.16531297854422408,1.959481656129422,-1.7112040748692259,-7.3752587287410725,-6.073150384634829,-8.011555768976134,0.11800055123779553,5.262787704963731,-5.949467013614379,-3.6393289307082,3.402652594622284,5.4044725142244845,-3.826013919118578,-10.677259393552918,-2.442752449345325,0.3319329873635232,4.809471920927637,-15.61763120545101,11.588497354689688,6.268038044998857,1.9803461988079172,-4.0186898463710445,0.8017014060359907,-5.5165745171474585,2.3565353010242784,-4.208724030678945,-1.9959992454835362,-5.6120154138082325,3.6915634761056992,2.0375505390837967,-6.115509894069606,-1.1050117800727526,-5.0375745122778826,7.160436847762076,1.578583415898532,11.930261928172872,0.3524994217802487,-2.1900868374656697,-4.609005286093726,7.456103280969157,1.3013908625119002,-5.577320070310496,1.3609394962827257],[-1.38230435910195,4.855266660386291,2.1005842058830146,1.7859771235310802,-1.236862701309796,2.985845421024939,-9.068233752470299,-2.868201661159237,5.739697257438812,-0.4849131047520194,-5.400417678355603,-0.23619134889774054,5.470231259900502,1.224803497469135,3.312459025333816,-3.727938622893208,-1.3852680949564955,9.493784351798926,1.8468430888385854,-1.542223743441791,2.069054014046281,-33.06068980002482,0.16606428045383614,-3.7136710442149314,0.7091323923124007,5.903403305801117,0.8395307304160535,1.8399272227271477,5.517864662152103,-6.149404080937497,-1.6131641980459395,-3.6510647034033665,-0.3741570363748378,-7.258959978622337,-9.15191595756213,-6.802478253833671,7.274395780930162,-11.47843711070968,-1.8108733778202792,-3.7001103858757074,-40.106439171765636,-3.925553776358195,-5.563477448064704,-0.8258082343288327,-5.762236191503361,-4.462277324231619,2.900833750469968,-2.3680091706468764,3.83335780509183,4.996913976645631,9.29196370719506,2.3086534416583264,-0.7025041851467316,2.232055947130197,-21.497951887041776,-10.5176285087489,-1.999122894649859,3.9736508098351613,-5.542856579080501,-1.5434479867471356,1.6652313906179477,3.498575508980648,-0.8074539862314432,1.7995601484327053,0.7351055061500343,-7.384991678440108,0.389840624612283,-3.6672948925606677,-0.1391296138401377,3.313292150287103,-1.2810510760146783,2.3011232951674265,-51.56854996754883,4.762012059073362,4.790330998187727,3.3435641222479426,1.9010761293944765,-0.5104550296947443,4.429314466441514,-0.9801528103790936],[-14.386986487918605,-13.547089693079807,1.1300467633054645,5.1437039776652265,5.482982638115585,-11.57398372052608,-0.30356052414370144,-4.2771819103394995,2.3358776195750135,6.200300784019538,2.3218840588201215,4.941320539411106,-8.944685851211267,-4.874711261497319,6.566980839797602,-1.6826021125461288,2.48993960999194,-7.694675458103039,-1.9135176133577567,4.918408236269913,-0.10859216574697253,6.116095233821752,2.0107739527101596,-20.639349626102533,-0.49558824255508266,-3.2211504986157933,2.545502472556093,-0.8328239379362363,2.269611621137615,-36.78169809744387,1.978750897699132,-1.027363111895842,6.103921602233596,7.759758082721221,0.7931700931825238,-3.715123907724233,-1.0802047525314333,-1.6088384540256981,4.512662203543533,-1.0316027301965154,2.0481881497872196,-2.26429014076494,-10.682159696405778,6.846748432124084,-6.048533873970288,-0.4309946508169376,2.5720444060896024,-4.93340119434504,3.4611649442043033,-0.39405600575356425,21.922683411763508,0.9373583657102859,3.7433146047139236,-3.3089496174867636,17.643561286148415,-2.9654436478709014,-0.3924576361920237,-3.229960928527113,1.1565220064523536,-0.30168182482455835,0.5297988684686634,-0.28066100500855923,-8.733405213729437,-9.633706798861535,0.9820514131384798,4.134508607599442,-1.532248048947721,-1.0276648883400474,-6.066159678794101,-8.017828308781548,-6.928584307053966,-6.38824562398906,8.305931392163334,-0.14897919529608614,1.7000568038250463,10.851310554271969,1.5522852982280466,-5.101796140089313,3.956919771406297,-9.11459244241187],[-7.84815976502552,-0.5969357950415259,0.24476978501207416,5.831619834280178,2.557537736623615,-4.2002280594123045,1.677242736717837,-1.891066624710909,0.34985799645083593,4.351911291123338,-4.747581088175332,-7.0041638773609245,3.5323476366114175,0.987108338290575,3.463144134880555,4.938262950579243,-4.876165160001433,6.87614000269566,-10.225941336183972,0.42075067020767154,-2.914454164308242,4.004735761518708,-3.9102761549585594,-3.65214998235589,-8.755353174611974,5.638512685500863,-3.2886773992324523,-0.2191540404871383,1.1870351595740143,8.002917277075444,-2.2957970625280684,3.803760268719658,5.314123332744863,-3.18114670299982,6.102761116223666,-3.1905842512446005,6.205512285304777,-1.2606300475259649,0.45913445910393014,-3.2062387868738877,1.2670957419793627,-5.293728232415103,5.259857706427782,-3.772959094035831,-1.3620012987824903,-0.06769964749467038,-13.502425524140287,3.3536682688693893,6.0156029042000085,4.214263219329958,-10.859899599309045,2.71219023821001,4.576387159794473,0.45544200717976524,4.172185746463456,-2.848399534049332,-3.167109872742944,2.4307462850414585,-3.5646506256746737,-4.77717341728349,-1.1440563493410663,-6.894844131145591,-6.495750131101188,-2.716581838167623,-4.3673547221155795,-1.94708099397028,-3.145175427192358,-3.0750131749342042,-3.809840722960675,2.9976652797225802,3.9631047316706747,8.40410272650763,0.22381749589882122,6.443594535796792,-0.7313172726492686,1.784387761897854,-2.7125844012696896,-5.936247566835872,-1.9235138214097869,3.2251413460697673],[4.182248771675949,2.8149732758627946,-0.738781248584677,-4.614267887971437,-4.573044228792276,-0.29321131384435767,12.649067060080856,6.020422668912012,-2.6791281582763777,5.974863998213925,-6.484854810077288,2.699102171385168,-11.071050945997621,-3.659675270070075,1.7152665480656446,-1.7252770964750639,-12.076288467192088,-6.301119668284866,0.815006068406182,4.4131618941593285,4.144796843505934,-9.814288434969862,-1.8101755603973115,-9.524715936347746,3.659328961734567,8.662234918009016,3.3067288591270563,-0.26448035892128485,2.8865160946163475,0.31106168626232383,-2.073913424931516,-0.9821579431161616,0.8701186968094141,0.9478688652648892,2.65228159780576,21.021994101289973,2.874204385229641,-1.5060132606806724,-0.36524643265898366,1.575152720742205,0.423376585769733,3.2331069409278363,-12.50928517907988,-18.11748072022928,3.3168837121306893,2.16303357610151,2.7195301364721045,13.389241418802877,-5.6699178554715965,2.845852113507693,4.520544159184437,-0.710433148586799,-4.28717047015573,-11.948749285130972,-2.5165220296682227,3.5255059338901047,1.0454657056249508,1.0637093045240504,1.6232487340385513,2.4422407355838214,7.569709299396423,-5.91150743034072,2.5954348516510346,-2.7367844434647437,2.4279307700609776,0.0423641795273771,0.2193606592956646,-7.300629928450036,0.6843534486521422,1.8674156211119959,7.077755083073373,0.10925082567742161,-7.167981299364482,-3.17498371921567,-0.7089482626821619,-5.462926692677269,-2.7378906290025546,3.9339268246570605,0.5489191306610837,-1.0119962789633064],[-6.959570993165428,0.4476949877699765,4.2282924603028365,5.979084707708604,3.2490516916678134,0.8003392635884685,-2.9464225119297733,6.670815551914582,1.9198068751776771,1.0262744136131714,-3.144862819619299,-1.59424937358053,-5.5289586712129,-0.22718553225232654,-1.707674574655221,-4.330677330194733,2.7143486873127376,-3.040100431784693,-0.011877985977892533,5.004262013064578,4.043516738540565,-2.7426630944899664,-0.9334873585265048,3.0969780098945066,-2.514108268710681,-0.2715380551467567,0.30933549033548885,0.3232888319379572,4.471753837540442,11.26401729512474,-1.0702833467270838,4.186371689963726,-0.1369334100879391,-4.762143092156422,3.7524250258348055,-3.4532498857315757,4.2424130645204805,-2.903167429685488,-0.739458867595146,10.09975195982972,1.4271541107942138,1.1800626459268235,-1.5280895214542518,-0.8143039357608789,-2.9654918276718174,2.014782890124018,1.953294432863887,-0.1334005066719394,3.789607547260136,-1.103815975904249,-5.3532005843883494,-0.936973604687415,-2.308131842735336,0.9473134413685188,-8.7894751913655,-5.717051013979282,-2.1466451110098173,0.22675561735798863,1.2817249118359952,-2.414143235004238,0.41119128309159914,-6.783324606673009,-0.9215072837358745,3.552495315988776,-1.8855434273933076,-4.117762760537031,3.133170937642606,-1.136014089763507,4.982666598197171,-7.6514789316269285,2.9885761758379594,-11.976963420459406,7.003329063851451,4.918025730123629,-2.1102469615867854,1.6354401668371918,-4.275606654734858,-0.008330896379058027,-2.1945594577550933,-3.5408409134752086],[-1.6834386192311526,12.080021133290195,0.8249305793398816,-4.033948740029977,0.7130256564257764,0.31713992733303764,1.7881774281890777,0.7180640066536018,4.178674889030695,8.424481971789472,-3.657105929878759,7.049529606388482,-0.6272224309052481,-5.822302272693163,-4.027107074522496,-1.9586829485464325,3.3157116681611214,8.028388123424532,-16.267732551929452,-7.120659812069426,-1.2992268369622895,3.180660721330235,0.39115044112896685,-4.763977524735663,-0.5855224550095676,-5.33202572340207,-3.242880687791657,3.988889176380359,-0.025238011530857498,-4.708424970875546,-1.6738234278780517,6.202669990908741,-4.4412816509310575,5.8321440696917515,-0.6617961512896468,3.7501062821418487,2.610854338454955,-5.051378783279886,1.9042977552959348,-5.667041917647144,3.692300112663745,-8.509146832051066,10.978527270471858,-1.3920068960943397,2.0692672487769674,-1.500346382845697,-0.6413068280048578,5.3967349284006385,5.370399051453212,-2.478231697493683,3.1098903894989776,-0.463726723056857,-5.930686203160435,4.667736739211821,0.2761427613830504,8.091747175279295,7.197974548157195,-1.5512781807162845,-1.2540063507093597,1.7981388829600793,4.690238602623256,-2.3655984324910695,-1.2517971597386583,1.1600933830313322,-2.940397640342767,-3.8629758817780155,-0.29469076680389666,-8.526310542388844,-0.804103628951487,-7.766320882320695,-4.4700716712302455,-0.0835687853022651,0.44130342977209064,-1.7728192184294278,2.488737809338689,-12.459487633341213,0.5966613058274871,3.1450515335069342,-2.2058250492879288,0.9420171780361493],[-1.4802167276588087,6.741360906538284,1.8982350843918048,-1.3083966442668975,-1.4872869627383118,0.9814601744922895,-3.597599543515898,-0.08332299744801927,3.298535622467458,-5.747903459525747,3.566108633173152,3.7297931214450637,45.218126281697906,3.061809041950159,21.806126510667458,0.3449558629178837,-0.11313895065743239,10.9887235155567,0.31048790037601987,0.4985123214767816,-4.899343771093631,1.0230924987769987,-4.264949673495497,6.581277419701699,-9.578300051135002,2.0157902380205153,0.16358764442286336,-1.0774625649242322,6.9235251838093195,-26.120947353661034,3.4622065225200243,-2.3852989789528367,-1.5680984873495003,9.286238428942228,6.96268900726077,-10.7587468174908,5.923922855456942,-2.6702720698068916,-2.601047072921172,4.0629420306391015,7.329462377601475,-4.268441305955337,-32.74208457196003,0.9784540911850294,-10.086627139285168,-0.07274706328679874,-0.9301729257907403,-8.835276910953885,3.902121328082769,3.107620979960014,-15.026885087721048,3.515275847058119,2.9291715225452597,33.5964650947176,-3.5757220153330094,9.396339996100494,3.225230609772888,-7.18441738883767,25.021846448390267,0.323001909421952,2.1734299044525662,7.525639355525854,1.5622527862979356,-1.838465046401619,-2.427907559815235,-1.3156548341996726,-4.299377024783092,12.511880693785402,-6.51509023362744,-4.99671813342172,-1.9323532155304892,4.351025158443593,37.52005908257594,-2.9142396359964935,1.0347149999825276,-0.4913974607037513,2.53661592115467,0.4315665892096668,-1.1542565226288717,3.9413527177491985],[-3.9321475515660826,-3.749402348715986,6.350337083264347,-9.702270312446565,5.012778457593583,-6.563504908596091,13.130608529422629,1.2461697031118353,-2.2234123129906465,3.2454635261170393,1.4777332047150478,4.375821037779357,6.217796038443688,-1.6994047578491251,-2.5225252305745567,-8.895146685294538,1.9983285229795924,2.061925240054085,-3.8843723938529156,-1.0744550354740203,-1.7750391396876388,0.07365393200693958,-4.56944502074932,0.5539558211586888,0.16355856911133637,2.687201766711246,-0.7181840091100525,5.0261790177677295,-0.46692021831929925,-17.30675237725505,-0.43151702514165824,1.4497052265896937,-2.4239644937709652,1.4810292707916708,-3.664537523894334,-19.854911705994834,5.651969454836877,-2.875137314109194,0.26230335599222876,-3.302112023395076,-2.9990789287694644,1.299117098951614,8.99179550988922,0.9711270832430331,-4.961804977561589,3.2491044886017804,3.3683976092909806,9.333515181944986,6.174024202516925,-5.917758509034179,-0.574279037383046,6.799852723341463,1.5411195813848053,-1.1216753455593012,-49.3993637231674,0.3694601652116608,0.25982471626071324,-2.0961009256779817,-4.056830201453193,2.0551553629194963,-2.9873075056526948,-1.4163467232546458,-5.838956047476556,1.6090149997644363,-2.2232021024218116,3.6434073074919104,-12.600992787004854,-5.0495095920811295,0.9775580385542594,-2.6668144065571995,-0.545305924416141,0.29744019260429,6.949722464621143,3.2594738970544075,-4.027305946613181,0.2637237755138128,-6.531679739808777,3.2462316404590843,-5.314303848560406,-1.4187642082578409]],[[22.97601586351719,-16.564563131939423,-1.1382338898054731,-27.04028333552988,23.656963829260224,-32.50102146729917,-23.12331602232791,-2.815228272546454,-2.7936128187265723,35.030427259242295,-5.324444383134656,2.750822816599131,8.084468292267067,-17.496123235884518,16.058337721367703,-26.27777208322737,4.045812073599913,-11.726914285899808,-44.35539349675086,-3.09216860549471,13.653341116452486,-28.02354965119992,14.098630638168386,0.20941788181272686,-14.165841041512545,6.177848197311277,-47.11539398941007],[-15.534433800105285,1.1198446454406836,14.11967233783919,-57.78233402708751,-13.689679688877636,40.1319758485839,36.60776742351063,3.23321424626717,3.772582346582482,-52.61997832555758,24.736496122660327,15.439259341680929,-0.2517544669155824,-16.74540754575712,-99.31732307401728,-26.218039654358467,-16.34768271549734,-13.195993519093628,17.185064211181725,-12.60317498142748,-18.695638599559658,-32.38085912539893,-18.190922180303307,16.117323065737903,-38.316573717603355,-5.475585689598536,-6.612899832733502],[35.83794110505329,-27.572132790966865,-15.069383564644413,-35.478617575577395,-26.085151696395698,3.8891430385154524,15.089581730031862,-17.840032451961928,-11.803793669925872,-9.74050498953808,-31.68416682915418,7.221071164074634,-16.12050672570114,23.414771937252464,-10.622143018591714,26.988610246475847,8.113377935619116,-21.55052396981369,10.440419806812493,7.025706012013202,29.13059166084588,-1.784623880055708,-25.424289043319718,-5.011394853776115,1.7884772035622338,-4.704447047213353,-2.0728361732274263],[-38.71615815415941,9.97745816527107,14.731683093766458,6.440075110958586,-18.17489221250234,-49.818290620148275,-26.738407796808286,-12.516570845558237,-12.279570956542607,8.160976637695835,-21.291106227385306,34.567907424983254,10.809544871656302,8.86579459845822,-58.95763023571553,15.414298516443177,-26.460345514593747,-6.835673527784891,14.724886609006353,-52.29875544008499,-48.26640697942024,-40.61561093452242,5.380818872796886,-10.678425743805848,-24.444757941712556,9.12405172592911,3.5909993614569258],[20.52471795917033,-34.69960152763878,-15.236434200511423,28.187311250900024,-5.961064796620652,2.0823517524034543,-29.478734563772903,-16.74917931153202,-7.315746223919655,-10.146484303075697,-22.950601283674928,3.070745092335499,-32.11323799866793,-21.289156500968172,-22.905629305176067,-34.11996023639388,-7.644207904637854,-16.954272800361956,30.17964218141565,-23.40974406657857,-48.70717462252293,-4.7261315308684635,21.242258134603883,5.1968225196918185,34.55387266169695,-8.851761467436884,32.98577520333648],[-26.085511731045337,23.73441796740647,-28.93309660691299,-8.642622312319943,-16.69948658817447,-46.57258383673816,12.541565277352312,-8.638312944135771,14.309923375852946,-42.2130285675136,-34.54572284184642,-24.807489309881433,-16.770034956551648,-32.16911159455809,10.884612745433522,4.8266636042717,1.881507378465494,-2.4204676179186153,-2.3693338568017412,13.443041309460865,-80.20923546692471,-32.569202815270636,-2.624205129145329,-51.34060386695895,-11.580104418054184,14.145703126697798,19.586650311675562],[-13.580190441775432,45.78345012831763,-16.972601888011067,33.67071668176862,-30.757232342716655,11.834087039935143,-13.276653042008578,-0.9216502678311048,-0.32465019911640375,-26.40796651770465,-1.9407306653110286,-21.805335346034624,-11.609279489159576,27.568625503969773,-65.26444753033998,-17.0228524246881,22.66693880313107,-11.363276696056525,0.9050975932489809,-2.53140287053628,-3.1917897878657477,5.846321189672704,-13.644680118238313,2.89744019397637,-52.505810260432774,-2.6195545421902415,-37.46178398583698],[-6.253522250741952,-70.7180557969273,-14.189417904718772,-66.11564129466387,-14.496651573233446,-98.6170677922662,-11.89009216609666,18.418273358941953,-17.572462688551575,32.020979935208864,-21.851223078444136,-15.079695445016055,-17.19405098085177,-21.478454875010836,-42.8394359329204,18.815833339044953,-1.169079139377562,7.7013762036733455,-5.339127232573344,-14.520187558852896,1.6251654856462654,-7.39107110255128,-6.283167155410962,36.453173054265164,-103.49889412905736,-27.458700857871253,-5.765980994915715],[-24.69706295881796,13.940675669451775,-44.728371521903455,-85.40579159995751,22.11007533881165,-24.123890819469445,-9.326488794975978,-9.18205138278652,-7.441238352444354,-276.7429269011093,18.154714060668322,10.199561967014636,-17.568172825233773,-18.954057282591364,-3.2071549400697124,7.036230680505024,-8.40878137076858,5.7855563998267385,-5.985775597326035,-10.71008434383076,10.365535072942762,34.490106844766636,-6.23541090052398,-14.976876142444736,12.426521806379851,5.63562189239,-46.64427019211646]]]}